<?xml version="1.0"?>
<opencv_storage>
<cascade>
  <stageType>BOOST</stageType>
  <featureType>HAAR</featureType>
  <height>30</height>
  <width>30</width>
  <stageParams>
    <boostType>GAB</boostType>
    <minHitRate>9.9900001287460327e-01</minHitRate>
    <maxFalseAlarm>3.0000001192092896e-01</maxFalseAlarm>
    <weightTrimRate>9.4999999999999996e-01</weightTrimRate>
    <maxDepth>1</maxDepth>
    <maxWeakCount>100</maxWeakCount></stageParams>
  <featureParams>
    <maxCatCount>0</maxCatCount>
    <featSize>1</featSize>
    <mode>BASIC</mode></featureParams>
  <stageNum>12</stageNum>
  <stages>
    <!-- stage 0 -->
    <_>
      <maxWeakCount>2</maxWeakCount>
      <stageThreshold>-1.5131205320358276e-01</stageThreshold>
      <weakClassifiers>
        <_>
          <internalNodes>
            0 -1 47 1.1715911328792572e-02</internalNodes>
          <leafValues>
            -9.3908631801605225e-01 7.9245281219482422e-01</leafValues></_>
        <_>
          <internalNodes>
            0 -1 23 -6.2757670879364014e-01</internalNodes>
          <leafValues>
            8.3258742094039917e-01 -9.4376486539840698e-01</leafValues></_></weakClassifiers></_>
    <!-- stage 1 -->
    <_>
      <maxWeakCount>2</maxWeakCount>
      <stageThreshold>-1.5337716042995453e-01</stageThreshold>
      <weakClassifiers>
        <_>
          <internalNodes>
            0 -1 30 1.9947100430727005e-02</internalNodes>
          <leafValues>
            -8.7064677476882935e-01 7.2549021244049072e-01</leafValues></_>
        <_>
          <internalNodes>
            0 -1 45 -2.3142319172620773e-02</internalNodes>
          <leafValues>
            7.4099129438400269e-01 -8.7886732816696167e-01</leafValues></_></weakClassifiers></_>
    <!-- stage 2 -->
    <_>
      <maxWeakCount>4</maxWeakCount>
      <stageThreshold>-3.0445531010627747e-01</stageThreshold>
      <weakClassifiers>
        <_>
          <internalNodes>
            0 -1 4 2.6500460226088762e-03</internalNodes>
          <leafValues>
            -7.6363635063171387e-01 8.0722892284393311e-01</leafValues></_>
        <_>
          <internalNodes>
            0 -1 25 6.5210890024900436e-03</internalNodes>
          <leafValues>
            -8.1128782033920288e-01 5.9963572025299072e-01</leafValues></_>
        <_>
          <internalNodes>
            0 -1 7 -2.3809446429368109e-04</internalNodes>
          <leafValues>
            7.3107570409774780e-01 -6.6808390617370605e-01</leafValues></_>
        <_>
          <internalNodes>
            0 -1 17 -9.7874905914068222e-03</internalNodes>
          <leafValues>
            5.3939312696456909e-01 -8.1991678476333618e-01</leafValues></_></weakClassifiers></_>
    <!-- stage 3 -->
    <_>
      <maxWeakCount>4</maxWeakCount>
      <stageThreshold>-4.2383071780204773e-01</stageThreshold>
      <weakClassifiers>
        <_>
          <internalNodes>
            0 -1 9 -1.5278119593858719e-02</internalNodes>
          <leafValues>
            5.3535354137420654e-01 -7.5490194559097290e-01</leafValues></_>
        <_>
          <internalNodes>
            0 -1 55 -8.6739547550678253e-03</internalNodes>
          <leafValues>
            4.4984260201454163e-01 -7.5947844982147217e-01</leafValues></_>
        <_>
          <internalNodes>
            0 -1 49 -4.8140669241547585e-03</internalNodes>
          <leafValues>
            6.1406880617141724e-01 -5.8851379156112671e-01</leafValues></_>
        <_>
          <internalNodes>
            0 -1 48 1.6778606921434402e-02</internalNodes>
          <leafValues>
            -7.1868306398391724e-01 4.7648087143898010e-01</leafValues></_></weakClassifiers></_>
    <!-- stage 4 -->
    <_>
      <maxWeakCount>6</maxWeakCount>
      <stageThreshold>-7.5602453947067261e-01</stageThreshold>
      <weakClassifiers>
        <_>
          <internalNodes>
            0 -1 57 -4.3612257577478886e-03</internalNodes>
          <leafValues>
            6.9014084339141846e-01 -6.4655172824859619e-01</leafValues></_>
        <_>
          <internalNodes>
            0 -1 18 1.4402452856302261e-02</internalNodes>
          <leafValues>
            -5.9500098228454590e-01 5.9863209724426270e-01</leafValues></_>
        <_>
          <internalNodes>
            0 -1 14 -9.4047300517559052e-03</internalNodes>
          <leafValues>
            6.4985519647598267e-01 -5.5087083578109741e-01</leafValues></_>
        <_>
          <internalNodes>
            0 -1 38 -6.2757528212387115e-05</internalNodes>
          <leafValues>
            -8.7945348024368286e-01 3.3552986383438110e-01</leafValues></_>
        <_>
          <internalNodes>
            0 -1 3 -8.2441420090617612e-06</internalNodes>
          <leafValues>
            -7.2494441270828247e-01 4.4377514719963074e-01</leafValues></_>
        <_>
          <internalNodes>
            0 -1 59 -2.4000149220228195e-02</internalNodes>
          <leafValues>
            -1. 2.5709396600723267e-01</leafValues></_></weakClassifiers></_>
    <!-- stage 5 -->
    <_>
      <maxWeakCount>5</maxWeakCount>
      <stageThreshold>-6.2487012147903442e-01</stageThreshold>
      <weakClassifiers>
        <_>
          <internalNodes>
            0 -1 27 -1.8421855568885803e-01</internalNodes>
          <leafValues>
            1.4838708937168121e-01 -8.3783781528472900e-01</leafValues></_>
        <_>
          <internalNodes>
            0 -1 31 -5.6795263662934303e-03</internalNodes>
          <leafValues>
            4.9415734410285950e-01 -6.3520789146423340e-01</leafValues></_>
        <_>
          <internalNodes>
            0 -1 52 2.4950508028268814e-02</internalNodes>
          <leafValues>
            -7.4232614040374756e-01 4.1358906030654907e-01</leafValues></_>
        <_>
          <internalNodes>
            0 -1 37 -9.2451140517368913e-05</internalNodes>
          <leafValues>
            -9.3737947940826416e-01 3.5781714320182800e-01</leafValues></_>
        <_>
          <internalNodes>
            0 -1 36 4.0242179238703102e-05</internalNodes>
          <leafValues>
            3.8574108481407166e-01 -8.2527834177017212e-01</leafValues></_></weakClassifiers></_>
    <!-- stage 6 -->
    <_>
      <maxWeakCount>7</maxWeakCount>
      <stageThreshold>-8.0698287487030029e-01</stageThreshold>
      <weakClassifiers>
        <_>
          <internalNodes>
            0 -1 20 7.4873324483633041e-03</internalNodes>
          <leafValues>
            -8.2352942228317261e-01 2.9323309659957886e-01</leafValues></_>
        <_>
          <internalNodes>
            0 -1 26 -1.3408670201897621e-02</internalNodes>
          <leafValues>
            3.8522621989250183e-01 -7.9553937911987305e-01</leafValues></_>
        <_>
          <internalNodes>
            0 -1 15 1.8265333026647568e-02</internalNodes>
          <leafValues>
            2.8790339827537537e-01 -9.6279180049896240e-01</leafValues></_>
        <_>
          <internalNodes>
            0 -1 32 -9.8188975825905800e-03</internalNodes>
          <leafValues>
            -9.2458850145339966e-01 4.3736109137535095e-01</leafValues></_>
        <_>
          <internalNodes>
            0 -1 56 -1.0726542212069035e-02</internalNodes>
          <leafValues>
            9.1990447044372559e-01 -4.6190875768661499e-01</leafValues></_>
        <_>
          <internalNodes>
            0 -1 10 -4.9754131585359573e-02</internalNodes>
          <leafValues>
            -9.4518178701400757e-01 3.4164628386497498e-01</leafValues></_>
        <_>
          <internalNodes>
            0 -1 16 2.0657528191804886e-02</internalNodes>
          <leafValues>
            4.5227095484733582e-01 -9.0760731697082520e-01</leafValues></_></weakClassifiers></_>
    <!-- stage 7 -->
    <_>
      <maxWeakCount>6</maxWeakCount>
      <stageThreshold>-5.6548964977264404e-01</stageThreshold>
      <weakClassifiers>
        <_>
          <internalNodes>
            0 -1 0 1.3869504909962416e-03</internalNodes>
          <leafValues>
            -8.7671232223510742e-01 1.7197452485561371e-01</leafValues></_>
        <_>
          <internalNodes>
            0 -1 40 -1.2654289603233337e-02</internalNodes>
          <leafValues>
            2.5141307711601257e-01 -7.4858540296554565e-01</leafValues></_>
        <_>
          <internalNodes>
            0 -1 35 -9.5173663794412278e-06</internalNodes>
          <leafValues>
            -8.4539085626602173e-01 3.1528675556182861e-01</leafValues></_>
        <_>
          <internalNodes>
            0 -1 11 -1.4609402976930141e-02</internalNodes>
          <leafValues>
            3.4056964516639709e-01 -7.7146589756011963e-01</leafValues></_>
        <_>
          <internalNodes>
            0 -1 41 -2.6056643109768629e-03</internalNodes>
          <leafValues>
            -8.9636576175689697e-01 2.9914432764053345e-01</leafValues></_>
        <_>
          <internalNodes>
            0 -1 34 4.0424150938633829e-05</internalNodes>
          <leafValues>
            2.6548650860786438e-01 -9.6827846765518188e-01</leafValues></_></weakClassifiers></_>
    <!-- stage 8 -->
    <_>
      <maxWeakCount>6</maxWeakCount>
      <stageThreshold>-4.1284531354904175e-01</stageThreshold>
      <weakClassifiers>
        <_>
          <internalNodes>
            0 -1 21 -3.1808473169803619e-02</internalNodes>
          <leafValues>
            7.9166668653488159e-01 -5.4509806632995605e-01</leafValues></_>
        <_>
          <internalNodes>
            0 -1 13 -8.4644621238112450e-03</internalNodes>
          <leafValues>
            8.7895327806472778e-01 -3.6391013860702515e-01</leafValues></_>
        <_>
          <internalNodes>
            0 -1 42 9.1174500994384289e-05</internalNodes>
          <leafValues>
            3.9005157351493835e-01 -8.3373886346817017e-01</leafValues></_>
        <_>
          <internalNodes>
            0 -1 22 1.1498953215777874e-02</internalNodes>
          <leafValues>
            -6.0156923532485962e-01 5.2297586202621460e-01</leafValues></_>
        <_>
          <internalNodes>
            0 -1 46 -2.3829951882362366e-01</internalNodes>
          <leafValues>
            -9.3675625324249268e-01 3.3194962143898010e-01</leafValues></_>
        <_>
          <internalNodes>
            0 -1 53 6.8926636595278978e-04</internalNodes>
          <leafValues>
            -5.8848774433135986e-01 5.1989167928695679e-01</leafValues></_></weakClassifiers></_>
    <!-- stage 9 -->
    <_>
      <maxWeakCount>6</maxWeakCount>
      <stageThreshold>-9.8460040986537933e-02</stageThreshold>
      <weakClassifiers>
        <_>
          <internalNodes>
            0 -1 28 -4.2298287153244019e-03</internalNodes>
          <leafValues>
            8.2222223281860352e-01 -5.3488373756408691e-01</leafValues></_>
        <_>
          <internalNodes>
            0 -1 33 2.1166214719414711e-03</internalNodes>
          <leafValues>
            -3.8708648085594177e-01 8.1335747241973877e-01</leafValues></_>
        <_>
          <internalNodes>
            0 -1 51 -6.8369624204933643e-03</internalNodes>
          <leafValues>
            4.0905740857124329e-01 -8.9068531990051270e-01</leafValues></_>
        <_>
          <internalNodes>
            0 -1 58 -5.6971656158566475e-03</internalNodes>
          <leafValues>
            5.5997323989868164e-01 -5.6356716156005859e-01</leafValues></_>
        <_>
          <internalNodes>
            0 -1 54 -1.3489972800016403e-02</internalNodes>
          <leafValues>
            3.7915164232254028e-01 -8.0649667978286743e-01</leafValues></_>
        <_>
          <internalNodes>
            0 -1 39 -2.3963251151144505e-03</internalNodes>
          <leafValues>
            7.6489073038101196e-01 -4.2537337541580200e-01</leafValues></_></weakClassifiers></_>
    <!-- stage 10 -->
    <_>
      <maxWeakCount>6</maxWeakCount>
      <stageThreshold>-1.0658494234085083e+00</stageThreshold>
      <weakClassifiers>
        <_>
          <internalNodes>
            0 -1 2 6.4568682573735714e-03</internalNodes>
          <leafValues>
            -5.5378484725952148e-01 7.3076921701431274e-01</leafValues></_>
        <_>
          <internalNodes>
            0 -1 1 1.5417154645547271e-03</internalNodes>
          <leafValues>
            -6.6057324409484863e-01 3.6282780766487122e-01</leafValues></_>
        <_>
          <internalNodes>
            0 -1 5 2.7002751827239990e-02</internalNodes>
          <leafValues>
            2.2297926247119904e-01 -9.3427872657775879e-01</leafValues></_>
        <_>
          <internalNodes>
            0 -1 19 1.7500417015980929e-05</internalNodes>
          <leafValues>
            -6.3782560825347900e-01 3.9442539215087891e-01</leafValues></_>
        <_>
          <internalNodes>
            0 -1 29 4.0153800509870052e-03</internalNodes>
          <leafValues>
            -8.2521486282348633e-01 3.2584741711616516e-01</leafValues></_>
        <_>
          <internalNodes>
            0 -1 44 3.5652177757583559e-05</internalNodes>
          <leafValues>
            2.5071901082992554e-01 -7.9474335908889771e-01</leafValues></_></weakClassifiers></_>
    <!-- stage 11 -->
    <_>
      <maxWeakCount>6</maxWeakCount>
      <stageThreshold>-8.1589639186859131e-01</stageThreshold>
      <weakClassifiers>
        <_>
          <internalNodes>
            0 -1 12 4.9056252464652061e-03</internalNodes>
          <leafValues>
            -5.1968502998352051e-01 6.3265305757522583e-01</leafValues></_>
        <_>
          <internalNodes>
            0 -1 43 -1.7131515778601170e-03</internalNodes>
          <leafValues>
            3.3509716391563416e-01 -7.4623113870620728e-01</leafValues></_>
        <_>
          <internalNodes>
            0 -1 8 6.2226474285125732e-02</internalNodes>
          <leafValues>
            3.1906229257583618e-01 -7.5555300712585449e-01</leafValues></_>
        <_>
          <internalNodes>
            0 -1 6 7.7329913619905710e-04</internalNodes>
          <leafValues>
            -4.4656047224998474e-01 4.7557154297828674e-01</leafValues></_>
        <_>
          <internalNodes>
            0 -1 24 9.8367629107087851e-05</internalNodes>
          <leafValues>
            2.6941105723381042e-01 -8.0708444118499756e-01</leafValues></_>
        <_>
          <internalNodes>
            0 -1 50 -1.9878783496096730e-04</internalNodes>
          <leafValues>
            3.0327406525611877e-01 -6.5222519636154175e-01</leafValues></_></weakClassifiers></_></stages>
  <features>
    <_>
      <rects>
        <_>
          0 5 20 1 -1.</_>
        <_>
          10 5 10 1 2.</_></rects>
      <tilted>0</tilted></_>
    <_>
      <rects>
        <_>
          0 7 22 1 -1.</_>
        <_>
          11 7 11 1 2.</_></rects>
      <tilted>0</tilted></_>
    <_>
      <rects>
        <_>
          1 7 2 16 -1.</_>
        <_>
          2 7 1 16 2.</_></rects>
      <tilted>0</tilted></_>
    <_>
      <rects>
        <_>
          1 25 2 4 -1.</_>
        <_>
          1 25 1 2 2.</_>
        <_>
          2 27 1 2 2.</_></rects>
      <tilted>0</tilted></_>
    <_>
      <rects>
        <_>
          2 5 2 19 -1.</_>
        <_>
          3 5 1 19 2.</_></rects>
      <tilted>0</tilted></_>
    <_>
      <rects>
        <_>
          2 5 24 14 -1.</_>
        <_>
          14 5 12 14 2.</_></rects>
      <tilted>0</tilted></_>
    <_>
      <rects>
        <_>
          2 22 6 1 -1.</_>
        <_>
          5 22 3 1 2.</_></rects>
      <tilted>0</tilted></_>
    <_>
      <rects>
        <_>
          2 25 9 2 -1.</_>
        <_>
          2 26 9 1 2.</_></rects>
      <tilted>0</tilted></_>
    <_>
      <rects>
        <_>
          3 1 26 24 -1.</_>
        <_>
          3 1 13 12 2.</_>
        <_>
          16 13 13 12 2.</_></rects>
      <tilted>0</tilted></_>
    <_>
      <rects>
        <_>
          3 4 6 12 -1.</_>
        <_>
          3 4 3 6 2.</_>
        <_>
          6 10 3 6 2.</_></rects>
      <tilted>0</tilted></_>
    <_>
      <rects>
        <_>
          3 5 26 22 -1.</_>
        <_>
          3 5 13 11 2.</_>
        <_>
          16 16 13 11 2.</_></rects>
      <tilted>0</tilted></_>
    <_>
      <rects>
        <_>
          3 9 8 13 -1.</_>
        <_>
          7 9 4 13 2.</_></rects>
      <tilted>0</tilted></_>
    <_>
      <rects>
        <_>
          3 11 20 2 -1.</_>
        <_>
          3 12 20 1 2.</_></rects>
      <tilted>0</tilted></_>
    <_>
      <rects>
        <_>
          3 15 24 2 -1.</_>
        <_>
          3 16 24 1 2.</_></rects>
      <tilted>0</tilted></_>
    <_>
      <rects>
        <_>
          4 3 8 8 -1.</_>
        <_>
          4 3 4 4 2.</_>
        <_>
          8 7 4 4 2.</_></rects>
      <tilted>0</tilted></_>
    <_>
      <rects>
        <_>
          4 6 22 8 -1.</_>
        <_>
          15 6 11 8 2.</_></rects>
      <tilted>0</tilted></_>
    <_>
      <rects>
        <_>
          4 10 24 12 -1.</_>
        <_>
          4 10 12 6 2.</_>
        <_>
          16 16 12 6 2.</_></rects>
      <tilted>0</tilted></_>
    <_>
      <rects>
        <_>
          4 14 10 9 -1.</_>
        <_>
          9 14 5 9 2.</_></rects>
      <tilted>0</tilted></_>
    <_>
      <rects>
        <_>
          4 17 8 10 -1.</_>
        <_>
          4 17 4 5 2.</_>
        <_>
          8 22 4 5 2.</_></rects>
      <tilted>0</tilted></_>
    <_>
      <rects>
        <_>
          4 19 2 11 -1.</_>
        <_>
          5 19 1 11 2.</_></rects>
      <tilted>0</tilted></_>
    <_>
      <rects>
        <_>
          5 1 13 6 -1.</_>
        <_>
          5 4 13 3 2.</_></rects>
      <tilted>0</tilted></_>
    <_>
      <rects>
        <_>
          5 12 20 4 -1.</_>
        <_>
          5 14 20 2 2.</_></rects>
      <tilted>0</tilted></_>
    <_>
      <rects>
        <_>
          5 19 10 8 -1.</_>
        <_>
          5 19 5 4 2.</_>
        <_>
          10 23 5 4 2.</_></rects>
      <tilted>0</tilted></_>
    <_>
      <rects>
        <_>
          6 3 18 21 -1.</_>
        <_>
          6 10 18 7 2.</_></rects>
      <tilted>0</tilted></_>
    <_>
      <rects>
        <_>
          6 7 6 1 -1.</_>
        <_>
          9 7 3 1 2.</_></rects>
      <tilted>0</tilted></_>
    <_>
      <rects>
        <_>
          7 1 20 6 -1.</_>
        <_>
          7 4 20 3 2.</_></rects>
      <tilted>0</tilted></_>
    <_>
      <rects>
        <_>
          7 4 4 14 -1.</_>
        <_>
          7 11 4 7 2.</_></rects>
      <tilted>0</tilted></_>
    <_>
      <rects>
        <_>
          7 5 4 24 -1.</_>
        <_>
          7 13 4 8 2.</_></rects>
      <tilted>0</tilted></_>
    <_>
      <rects>
        <_>
          7 12 5 2 -1.</_>
        <_>
          7 13 5 1 2.</_></rects>
      <tilted>0</tilted></_>
    <_>
      <rects>
        <_>
          7 14 20 10 -1.</_>
        <_>
          17 14 10 10 2.</_></rects>
      <tilted>0</tilted></_>
    <_>
      <rects>
        <_>
          8 17 17 8 -1.</_>
        <_>
          8 21 17 4 2.</_></rects>
      <tilted>0</tilted></_>
    <_>
      <rects>
        <_>
          8 24 7 6 -1.</_>
        <_>
          8 27 7 3 2.</_></rects>
      <tilted>0</tilted></_>
    <_>
      <rects>
        <_>
          9 7 5 20 -1.</_>
        <_>
          9 17 5 10 2.</_></rects>
      <tilted>0</tilted></_>
    <_>
      <rects>
        <_>
          9 12 8 2 -1.</_>
        <_>
          9 13 8 1 2.</_></rects>
      <tilted>0</tilted></_>
    <_>
      <rects>
        <_>
          9 23 4 1 -1.</_>
        <_>
          11 23 2 1 2.</_></rects>
      <tilted>0</tilted></_>
    <_>
      <rects>
        <_>
          10 5 6 1 -1.</_>
        <_>
          13 5 3 1 2.</_></rects>
      <tilted>0</tilted></_>
    <_>
      <rects>
        <_>
          10 5 6 2 -1.</_>
        <_>
          13 5 3 2 2.</_></rects>
      <tilted>0</tilted></_>
    <_>
      <rects>
        <_>
          10 5 10 1 -1.</_>
        <_>
          15 5 5 1 2.</_></rects>
      <tilted>0</tilted></_>
    <_>
      <rects>
        <_>
          10 6 14 2 -1.</_>
        <_>
          10 6 7 1 2.</_>
        <_>
          17 7 7 1 2.</_></rects>
      <tilted>0</tilted></_>
    <_>
      <rects>
        <_>
          10 14 5 2 -1.</_>
        <_>
          10 15 5 1 2.</_></rects>
      <tilted>0</tilted></_>
    <_>
      <rects>
        <_>
          10 18 16 10 -1.</_>
        <_>
          10 18 8 5 2.</_>
        <_>
          18 23 8 5 2.</_></rects>
      <tilted>0</tilted></_>
    <_>
      <rects>
        <_>
          10 26 8 3 -1.</_>
        <_>
          14 26 4 3 2.</_></rects>
      <tilted>0</tilted></_>
    <_>
      <rects>
        <_>
          11 5 8 1 -1.</_>
        <_>
          15 5 4 1 2.</_></rects>
      <tilted>0</tilted></_>
    <_>
      <rects>
        <_>
          11 5 18 1 -1.</_>
        <_>
          20 5 9 1 2.</_></rects>
      <tilted>0</tilted></_>
    <_>
      <rects>
        <_>
          11 6 8 2 -1.</_>
        <_>
          11 6 4 1 2.</_>
        <_>
          15 7 4 1 2.</_></rects>
      <tilted>0</tilted></_>
    <_>
      <rects>
        <_>
          12 6 12 10 -1.</_>
        <_>
          12 11 12 5 2.</_></rects>
      <tilted>0</tilted></_>
    <_>
      <rects>
        <_>
          12 14 5 15 -1.</_>
        <_>
          12 19 5 5 2.</_></rects>
      <tilted>0</tilted></_>
    <_>
      <rects>
        <_>
          13 14 14 9 -1.</_>
        <_>
          20 14 7 9 2.</_></rects>
      <tilted>0</tilted></_>
    <_>
      <rects>
        <_>
          15 4 14 10 -1.</_>
        <_>
          15 4 7 5 2.</_>
        <_>
          22 9 7 5 2.</_></rects>
      <tilted>0</tilted></_>
    <_>
      <rects>
        <_>
          15 23 9 6 -1.</_>
        <_>
          15 26 9 3 2.</_></rects>
      <tilted>0</tilted></_>
    <_>
      <rects>
        <_>
          16 25 13 2 -1.</_>
        <_>
          16 26 13 1 2.</_></rects>
      <tilted>0</tilted></_>
    <_>
      <rects>
        <_>
          17 5 9 14 -1.</_>
        <_>
          17 12 9 7 2.</_></rects>
      <tilted>0</tilted></_>
    <_>
      <rects>
        <_>
          17 8 10 14 -1.</_>
        <_>
          22 8 5 14 2.</_></rects>
      <tilted>0</tilted></_>
    <_>
      <rects>
        <_>
          18 2 8 2 -1.</_>
        <_>
          18 3 8 1 2.</_></rects>
      <tilted>0</tilted></_>
    <_>
      <rects>
        <_>
          18 17 9 1 -1.</_>
        <_>
          21 17 3 1 2.</_></rects>
      <tilted>0</tilted></_>
    <_>
      <rects>
        <_>
          20 15 8 12 -1.</_>
        <_>
          20 15 4 6 2.</_>
        <_>
          24 21 4 6 2.</_></rects>
      <tilted>0</tilted></_>
    <_>
      <rects>
        <_>
          24 12 4 12 -1.</_>
        <_>
          24 12 2 6 2.</_>
        <_>
          26 18 2 6 2.</_></rects>
      <tilted>0</tilted></_>
    <_>
      <rects>
        <_>
          25 7 4 4 -1.</_>
        <_>
          27 7 2 4 2.</_></rects>
      <tilted>0</tilted></_>
    <_>
      <rects>
        <_>
          26 10 4 13 -1.</_>
        <_>
          28 10 2 13 2.</_></rects>
      <tilted>0</tilted></_>
    <_>
      <rects>
        <_>
          28 0 1 6 -1.</_>
        <_>
          28 2 1 2 2.</_></rects>
      <tilted>0</tilted></_></features></cascade>
</opencv_storage>
